digraph Tree {
node [shape=box, style="filled, rounded", color="black", fontname=helvetica] ;
edge [fontname=helvetica] ;
0 [label="age <= 30.5\ngini = 0.776\nsamples = 14\nvalue = [3, 4, 3, 1, 3]\nclass = Classical", fillcolor="#f3fded"] ;
1 [label="age <= 25.5\ngini = 0.72\nsamples = 10\nvalue = [3, 0, 3, 1, 3]\nclass = Acoustic", fillcolor="#ffffff"] ;
0 -> 1 [labeldistance=2.5, labelangle=45, headlabel="True"] ;
2 [label="gender <= 0.5\ngini = 0.375\nsamples = 4\nvalue = [0, 0, 3, 1, 0]\nclass = Dance", fillcolor="#7beed8"] ;
1 -> 2 ;
3 [label="gini = 0.0\nsamples = 3\nvalue = [0, 0, 3, 0, 0]\nclass = Dance", fillcolor="#39e5c5"] ;
2 -> 3 ;
4 [label="gini = 0.0\nsamples = 1\nvalue = [0, 0, 0, 1, 0]\nclass = HipHop", fillcolor="#3c39e5"] ;
2 -> 4 ;
5 [label="gender <= 0.5\ngini = 0.5\nsamples = 6\nvalue = [3, 0, 0, 0, 3]\nclass = Acoustic", fillcolor="#ffffff"] ;
1 -> 5 ;
6 [label="gini = 0.0\nsamples = 3\nvalue = [3, 0, 0, 0, 0]\nclass = Acoustic", fillcolor="#e58139"] ;
5 -> 6 ;
7 [label="gini = 0.0\nsamples = 3\nvalue = [0, 0, 0, 0, 3]\nclass = Jazz", fillcolor="#e539c0"] ;
5 -> 7 ;
8 [label="gini = 0.0\nsamples = 4\nvalue = [0, 4, 0, 0, 0]\nclass = Classical", fillcolor="#7be539"] ;
0 -> 8 [labeldistance=2.5, labelangle=-45, headlabel="False"] ;
}